digraph Tree {
node [shape=box, style="filled", color="black", fontname="helvetica"] ;
edge [fontname="helvetica"] ;
0 [label="Pclass <= -0.971\ngini = 0.457\nsamples = 422\nvalue = [432, 236]\nclass = Died", fillcolor="#f3c6a5"] ;
1 [label="Sex_male <= 0.5\ngini = 0.479\nsamples = 95\nvalue = [60, 91]\nclass = Survived", fillcolor="#bcdef6"] ;
0 -> 1 [labeldistance=2.5, labelangle=45, headlabel="True"] ;
2 [label="Fare <= -0.052\ngini = 0.037\nsamples = 35\nvalue = [1, 52]\nclass = Survived", fillcolor="#3d9fe6"] ;
1 -> 2 ;
3 [label="Fare <= -0.075\ngini = 0.444\nsamples = 3\nvalue = [1, 2]\nclass = Survived", fillcolor="#9ccef2"] ;
2 -> 3 ;
4 [label="gini = 0.0\nsamples = 2\nvalue = [0, 2]\nclass = Survived", fillcolor="#399de5"] ;
3 -> 4 ;
5 [label="gini = 0.0\nsamples = 1\nvalue = [1, 0]\nclass = Died", fillcolor="#e58139"] ;
3 -> 5 ;
6 [label="gini = 0.0\nsamples = 32\nvalue = [0, 50]\nclass = Survived", fillcolor="#399de5"] ;
2 -> 6 ;
7 [label="Age <= 1.683\ngini = 0.479\nsamples = 60\nvalue = [59, 39]\nclass = Died", fillcolor="#f6d4bc"] ;
1 -> 7 ;
8 [label="Age <= 1.403\ngini = 0.498\nsamples = 49\nvalue = [42, 37]\nclass = Died", fillcolor="#fcf0e7"] ;
7 -> 8 ;
9 [label="Fare <= -0.117\ngini = 0.48\nsamples = 44\nvalue = [42, 28]\nclass = Died", fillcolor="#f6d5bd"] ;
8 -> 9 ;
10 [label="gini = 0.0\nsamples = 6\nvalue = [7, 0]\nclass = Died", fillcolor="#e58139"] ;
9 -> 10 ;
11 [label="Age <= 1.044\ngini = 0.494\nsamples = 38\nvalue = [35, 28]\nclass = Died", fillcolor="#fae6d7"] ;
9 -> 11 ;
12 [label="Fare <= -0.097\ngini = 0.497\nsamples = 32\nvalue = [24, 28]\nclass = Survived", fillcolor="#e3f1fb"] ;
11 -> 12 ;
13 [label="gini = 0.0\nsamples = 4\nvalue = [0, 7]\nclass = Survived", fillcolor="#399de5"] ;
12 -> 13 ;
14 [label="Parch <= 1.636\ngini = 0.498\nsamples = 28\nvalue = [24, 21]\nclass = Died", fillcolor="#fcefe6"] ;
12 -> 14 ;
15 [label="Parch <= 0.244\ngini = 0.47\nsamples = 23\nvalue = [23, 14]\nclass = Died", fillcolor="#f5ceb2"] ;
14 -> 15 ;
16 [label="Embarked_S <= 0.5\ngini = 0.491\nsamples = 19\nvalue = [17, 13]\nclass = Died", fillcolor="#f9e1d0"] ;
15 -> 16 ;
17 [label="SibSp <= -0.003\ngini = 0.415\nsamples = 10\nvalue = [12, 5]\nclass = Died", fillcolor="#f0b58b"] ;
16 -> 17 ;
18 [label="Fare <= 6.787\ngini = 0.43\nsamples = 9\nvalue = [11, 5]\nclass = Died", fillcolor="#f1ba93"] ;
17 -> 18 ;
19 [label="Fare <= 0.072\ngini = 0.337\nsamples = 8\nvalue = [11, 3]\nclass = Died", fillcolor="#eca36f"] ;
18 -> 19 ;
20 [label="Age <= 0.025\ngini = 0.49\nsamples = 5\nvalue = [4, 3]\nclass = Died", fillcolor="#f8e0ce"] ;
19 -> 20 ;
21 [label="Fare <= -0.065\ngini = 0.32\nsamples = 3\nvalue = [4, 1]\nclass = Died", fillcolor="#eca06a"] ;
20 -> 21 ;
22 [label="gini = 0.0\nsamples = 1\nvalue = [2, 0]\nclass = Died", fillcolor="#e58139"] ;
21 -> 22 ;
23 [label="Fare <= -0.036\ngini = 0.444\nsamples = 2\nvalue = [2, 1]\nclass = Died", fillcolor="#f2c09c"] ;
21 -> 23 ;
24 [label="gini = 0.0\nsamples = 1\nvalue = [0, 1]\nclass = Survived", fillcolor="#399de5"] ;
23 -> 24 ;
25 [label="gini = 0.0\nsamples = 1\nvalue = [2, 0]\nclass = Died", fillcolor="#e58139"] ;
23 -> 25 ;
26 [label="gini = 0.0\nsamples = 2\nvalue = [0, 2]\nclass = Survived", fillcolor="#399de5"] ;
20 -> 26 ;
27 [label="gini = 0.0\nsamples = 3\nvalue = [7, 0]\nclass = Died", fillcolor="#e58139"] ;
19 -> 27 ;
28 [label="gini = 0.0\nsamples = 1\nvalue = [0, 2]\nclass = Survived", fillcolor="#399de5"] ;
18 -> 28 ;
29 [label="gini = 0.0\nsamples = 1\nvalue = [1, 0]\nclass = Died", fillcolor="#e58139"] ;
17 -> 29 ;
30 [label="SibSp <= -0.003\ngini = 0.473\nsamples = 9\nvalue = [5, 8]\nclass = Survived", fillcolor="#b5daf5"] ;
16 -> 30 ;
31 [label="Age <= -0.175\ngini = 0.48\nsamples = 4\nvalue = [2, 3]\nclass = Survived", fillcolor="#bddef6"] ;
30 -> 31 ;
32 [label="gini = 0.0\nsamples = 1\nvalue = [0, 2]\nclass = Survived", fillcolor="#399de5"] ;
31 -> 32 ;
33 [label="Age <= -0.015\ngini = 0.444\nsamples = 3\nvalue = [2, 1]\nclass = Died", fillcolor="#f2c09c"] ;
31 -> 33 ;
34 [label="Fare <= 0.016\ngini = 0.5\nsamples = 2\nvalue = [1, 1]\nclass = Died", fillcolor="#ffffff"] ;
33 -> 34 ;
35 [label="gini = 0.0\nsamples = 1\nvalue = [0, 1]\nclass = Survived", fillcolor="#399de5"] ;
34 -> 35 ;
36 [label="gini = 0.0\nsamples = 1\nvalue = [1, 0]\nclass = Died", fillcolor="#e58139"] ;
34 -> 36 ;
37 [label="gini = 0.0\nsamples = 1\nvalue = [1, 0]\nclass = Died", fillcolor="#e58139"] ;
33 -> 37 ;
38 [label="Fare <= 0.419\ngini = 0.469\nsamples = 5\nvalue = [3, 5]\nclass = Survived", fillcolor="#b0d8f5"] ;
30 -> 38 ;
39 [label="gini = 0.0\nsamples = 1\nvalue = [0, 2]\nclass = Survived", fillcolor="#399de5"] ;
38 -> 39 ;
40 [label="Fare <= 0.464\ngini = 0.5\nsamples = 4\nvalue = [3, 3]\nclass = Died", fillcolor="#ffffff"] ;
38 -> 40 ;
41 [label="Age <= 0.165\ngini = 0.375\nsamples = 3\nvalue = [3, 1]\nclass = Died", fillcolor="#eeab7b"] ;
40 -> 41 ;
42 [label="Age <= -0.555\ngini = 0.5\nsamples = 2\nvalue = [1, 1]\nclass = Died", fillcolor="#ffffff"] ;
41 -> 42 ;
43 [label="gini = 0.0\nsamples = 1\nvalue = [1, 0]\nclass = Died", fillcolor="#e58139"] ;
42 -> 43 ;
44 [label="gini = 0.0\nsamples = 1\nvalue = [0, 1]\nclass = Survived", fillcolor="#399de5"] ;
42 -> 44 ;
45 [label="gini = 0.0\nsamples = 1\nvalue = [2, 0]\nclass = Died", fillcolor="#e58139"] ;
41 -> 45 ;
46 [label="gini = 0.0\nsamples = 1\nvalue = [0, 2]\nclass = Survived", fillcolor="#399de5"] ;
40 -> 46 ;
47 [label="Fare <= 0.77\ngini = 0.245\nsamples = 4\nvalue = [6, 1]\nclass = Died", fillcolor="#e9965a"] ;
15 -> 47 ;
48 [label="Fare <= 0.292\ngini = 0.444\nsamples = 2\nvalue = [2, 1]\nclass = Died", fillcolor="#f2c09c"] ;
47 -> 48 ;
49 [label="gini = 0.0\nsamples = 1\nvalue = [2, 0]\nclass = Died", fillcolor="#e58139"] ;
48 -> 49 ;
50 [label="gini = 0.0\nsamples = 1\nvalue = [0, 1]\nclass = Survived", fillcolor="#399de5"] ;
48 -> 50 ;
51 [label="gini = 0.0\nsamples = 2\nvalue = [4, 0]\nclass = Died", fillcolor="#e58139"] ;
47 -> 51 ;
52 [label="SibSp <= 1.337\ngini = 0.219\nsamples = 5\nvalue = [1, 7]\nclass = Survived", fillcolor="#55abe9"] ;
14 -> 52 ;
53 [label="gini = 0.0\nsamples = 4\nvalue = [0, 7]\nclass = Survived", fillcolor="#399de5"] ;
52 -> 53 ;
54 [label="gini = 0.0\nsamples = 1\nvalue = [1, 0]\nclass = Died", fillcolor="#e58139"] ;
52 -> 54 ;
55 [label="gini = 0.0\nsamples = 6\nvalue = [11, 0]\nclass = Died", fillcolor="#e58139"] ;
11 -> 55 ;
56 [label="gini = 0.0\nsamples = 5\nvalue = [0, 9]\nclass = Survived", fillcolor="#399de5"] ;
8 -> 56 ;
57 [label="Fare <= 0.953\ngini = 0.188\nsamples = 11\nvalue = [17, 2]\nclass = Died", fillcolor="#e89050"] ;
7 -> 57 ;
58 [label="SibSp <= -0.003\ngini = 0.245\nsamples = 9\nvalue = [12, 2]\nclass = Died", fillcolor="#e9965a"] ;
57 -> 58 ;
59 [label="Fare <= -0.027\ngini = 0.142\nsamples = 8\nvalue = [12, 1]\nclass = Died", fillcolor="#e78c49"] ;
58 -> 59 ;
60 [label="Fare <= -0.037\ngini = 0.32\nsamples = 4\nvalue = [4, 1]\nclass = Died", fillcolor="#eca06a"] ;
59 -> 60 ;
61 [label="gini = 0.0\nsamples = 2\nvalue = [3, 0]\nclass = Died", fillcolor="#e58139"] ;
60 -> 61 ;
62 [label="Age <= 1.883\ngini = 0.5\nsamples = 2\nvalue = [1, 1]\nclass = Died", fillcolor="#ffffff"] ;
60 -> 62 ;
63 [label="gini = 0.0\nsamples = 1\nvalue = [0, 1]\nclass = Survived", fillcolor="#399de5"] ;
62 -> 63 ;
64 [label="gini = 0.0\nsamples = 1\nvalue = [1, 0]\nclass = Died", fillcolor="#e58139"] ;
62 -> 64 ;
65 [label="gini = 0.0\nsamples = 4\nvalue = [8, 0]\nclass = Died", fillcolor="#e58139"] ;
59 -> 65 ;
66 [label="gini = 0.0\nsamples = 1\nvalue = [0, 1]\nclass = Survived", fillcolor="#399de5"] ;
58 -> 66 ;
67 [label="gini = 0.0\nsamples = 2\nvalue = [5, 0]\nclass = Died", fillcolor="#e58139"] ;
57 -> 67 ;
68 [label="Fare <= -0.333\ngini = 0.404\nsamples = 327\nvalue = [372, 145]\nclass = Died", fillcolor="#efb286"] ;
0 -> 68 [labeldistance=2.5, labelangle=-45, headlabel="False"] ;
69 [label="Age <= -0.834\ngini = 0.339\nsamples = 241\nvalue = [300, 83]\nclass = Died", fillcolor="#eca470"] ;
68 -> 69 ;
70 [label="Sex_male <= 0.5\ngini = 0.496\nsamples = 37\nvalue = [29, 24]\nclass = Died", fillcolor="#fbe9dd"] ;
69 -> 70 ;
71 [label="Age <= -1.234\ngini = 0.444\nsamples = 17\nvalue = [8, 16]\nclass = Survived", fillcolor="#9ccef2"] ;
70 -> 71 ;
72 [label="Fare <= -0.425\ngini = 0.48\nsamples = 7\nvalue = [6, 4]\nclass = Died", fillcolor="#f6d5bd"] ;
71 -> 72 ;
73 [label="Embarked_S <= 0.5\ngini = 0.32\nsamples = 3\nvalue = [4, 1]\nclass = Died", fillcolor="#eca06a"] ;
72 -> 73 ;
74 [label="gini = 0.0\nsamples = 1\nvalue = [0, 1]\nclass = Survived", fillcolor="#399de5"] ;
73 -> 74 ;
75 [label="gini = 0.0\nsamples = 2\nvalue = [4, 0]\nclass = Died", fillcolor="#e58139"] ;
73 -> 75 ;
76 [label="Parch <= 0.244\ngini = 0.48\nsamples = 4\nvalue = [2, 3]\nclass = Survived", fillcolor="#bddef6"] ;
72 -> 76 ;
77 [label="gini = 0.0\nsamples = 1\nvalue = [0, 1]\nclass = Survived", fillcolor="#399de5"] ;
76 -> 77 ;
78 [label="SibSp <= -0.003\ngini = 0.5\nsamples = 3\nvalue = [2, 2]\nclass = Died", fillcolor="#ffffff"] ;
76 -> 78 ;
79 [label="gini = 0.0\nsamples = 1\nvalue = [0, 1]\nclass = Survived", fillcolor="#399de5"] ;
78 -> 79 ;
80 [label="Fare <= -0.377\ngini = 0.444\nsamples = 2\nvalue = [2, 1]\nclass = Died", fillcolor="#f2c09c"] ;
78 -> 80 ;
81 [label="gini = 0.0\nsamples = 1\nvalue = [0, 1]\nclass = Survived", fillcolor="#399de5"] ;
80 -> 81 ;
82 [label="gini = 0.0\nsamples = 1\nvalue = [2, 0]\nclass = Died", fillcolor="#e58139"] ;
80 -> 82 ;
83 [label="Embarked_Q <= 0.5\ngini = 0.245\nsamples = 10\nvalue = [2, 12]\nclass = Survived", fillcolor="#5aade9"] ;
71 -> 83 ;
84 [label="Embarked_S <= 0.5\ngini = 0.298\nsamples = 8\nvalue = [2, 9]\nclass = Survived", fillcolor="#65b3eb"] ;
83 -> 84 ;
85 [label="gini = 0.0\nsamples = 2\nvalue = [2, 0]\nclass = Died", fillcolor="#e58139"] ;
84 -> 85 ;
86 [label="gini = 0.0\nsamples = 6\nvalue = [0, 9]\nclass = Survived", fillcolor="#399de5"] ;
84 -> 86 ;
87 [label="gini = 0.0\nsamples = 2\nvalue = [0, 3]\nclass = Survived", fillcolor="#399de5"] ;
83 -> 87 ;
88 [label="Pclass <= 0.228\ngini = 0.4\nsamples = 20\nvalue = [21, 8]\nclass = Died", fillcolor="#efb184"] ;
70 -> 88 ;
89 [label="Fare <= -0.421\ngini = 0.48\nsamples = 3\nvalue = [3, 2]\nclass = Died", fillcolor="#f6d5bd"] ;
88 -> 89 ;
90 [label="Age <= -0.994\ngini = 0.5\nsamples = 2\nvalue = [2, 2]\nclass = Died", fillcolor="#ffffff"] ;
89 -> 90 ;
91 [label="gini = 0.0\nsamples = 1\nvalue = [2, 0]\nclass = Died", fillcolor="#e58139"] ;
90 -> 91 ;
92 [label="gini = 0.0\nsamples = 1\nvalue = [0, 2]\nclass = Survived", fillcolor="#399de5"] ;
90 -> 92 ;
93 [label="gini = 0.0\nsamples = 1\nvalue = [1, 0]\nclass = Died", fillcolor="#e58139"] ;
89 -> 93 ;
94 [label="Age <= -1.274\ngini = 0.375\nsamples = 17\nvalue = [18, 6]\nclass = Died", fillcolor="#eeab7b"] ;
88 -> 94 ;
95 [label="gini = 0.0\nsamples = 2\nvalue = [0, 2]\nclass = Survived", fillcolor="#399de5"] ;
94 -> 95 ;
96 [label="Embarked_S <= 0.5\ngini = 0.298\nsamples = 15\nvalue = [18, 4]\nclass = Died", fillcolor="#eb9d65"] ;
94 -> 96 ;
97 [label="gini = 0.0\nsamples = 2\nvalue = [3, 0]\nclass = Died", fillcolor="#e58139"] ;
96 -> 97 ;
98 [label="Age <= -0.994\ngini = 0.332\nsamples = 13\nvalue = [15, 4]\nclass = Died", fillcolor="#eca36e"] ;
96 -> 98 ;
99 [label="gini = 0.0\nsamples = 4\nvalue = [7, 0]\nclass = Died", fillcolor="#e58139"] ;
98 -> 99 ;
100 [label="SibSp <= -0.003\ngini = 0.444\nsamples = 9\nvalue = [8, 4]\nclass = Died", fillcolor="#f2c09c"] ;
98 -> 100 ;
101 [label="Fare <= -0.483\ngini = 0.463\nsamples = 8\nvalue = [7, 4]\nclass = Died", fillcolor="#f4c9aa"] ;
100 -> 101 ;
102 [label="gini = 0.0\nsamples = 2\nvalue = [3, 0]\nclass = Died", fillcolor="#e58139"] ;
101 -> 102 ;
103 [label="Fare <= -0.479\ngini = 0.5\nsamples = 6\nvalue = [4, 4]\nclass = Died", fillcolor="#ffffff"] ;
101 -> 103 ;
104 [label="Age <= -0.914\ngini = 0.32\nsamples = 3\nvalue = [1, 4]\nclass = Survived", fillcolor="#6ab6ec"] ;
103 -> 104 ;
105 [label="gini = 0.0\nsamples = 1\nvalue = [0, 3]\nclass = Survived", fillcolor="#399de5"] ;
104 -> 105 ;
106 [label="gini = 0.5\nsamples = 2\nvalue = [1, 1]\nclass = Died", fillcolor="#ffffff"] ;
104 -> 106 ;
107 [label="gini = 0.0\nsamples = 3\nvalue = [3, 0]\nclass = Died", fillcolor="#e58139"] ;
103 -> 107 ;
108 [label="gini = 0.0\nsamples = 1\nvalue = [1, 0]\nclass = Died", fillcolor="#e58139"] ;
100 -> 108 ;
109 [label="Age <= 0.824\ngini = 0.294\nsamples = 204\nvalue = [271, 59]\nclass = Died", fillcolor="#eb9c64"] ;
69 -> 109 ;
110 [label="Age <= 0.444\ngini = 0.326\nsamples = 173\nvalue = [225, 58]\nclass = Died", fillcolor="#eca16c"] ;
109 -> 110 ;
111 [label="Sex_male <= 0.5\ngini = 0.308\nsamples = 161\nvalue = [213, 50]\nclass = Died", fillcolor="#eb9f67"] ;
110 -> 111 ;
112 [label="Embarked_Q <= 0.5\ngini = 0.493\nsamples = 36\nvalue = [23, 29]\nclass = Survived", fillcolor="#d6ebfa"] ;
111 -> 112 ;
113 [label="Age <= -0.195\ngini = 0.5\nsamples = 22\nvalue = [16, 17]\nclass = Survived", fillcolor="#f3f9fd"] ;
112 -> 113 ;
114 [label="Age <= -0.355\ngini = 0.43\nsamples = 10\nvalue = [5, 11]\nclass = Survived", fillcolor="#93caf1"] ;
113 -> 114 ;
115 [label="Fare <= -0.486\ngini = 0.5\nsamples = 8\nvalue = [5, 5]\nclass = Died", fillcolor="#ffffff"] ;
114 -> 115 ;
116 [label="gini = 0.0\nsamples = 2\nvalue = [0, 3]\nclass = Survived", fillcolor="#399de5"] ;
115 -> 116 ;
117 [label="Age <= -0.435\ngini = 0.408\nsamples = 6\nvalue = [5, 2]\nclass = Died", fillcolor="#efb388"] ;
115 -> 117 ;
118 [label="Fare <= -0.484\ngini = 0.48\nsamples = 5\nvalue = [3, 2]\nclass = Died", fillcolor="#f6d5bd"] ;
117 -> 118 ;
119 [label="gini = 0.0\nsamples = 1\nvalue = [0, 1]\nclass = Survived", fillcolor="#399de5"] ;
118 -> 119 ;
120 [label="Fare <= -0.413\ngini = 0.375\nsamples = 4\nvalue = [3, 1]\nclass = Died", fillcolor="#eeab7b"] ;
118 -> 120 ;
121 [label="gini = 0.0\nsamples = 2\nvalue = [2, 0]\nclass = Died", fillcolor="#e58139"] ;
120 -> 121 ;
122 [label="gini = 0.5\nsamples = 2\nvalue = [1, 1]\nclass = Died", fillcolor="#ffffff"] ;
120 -> 122 ;
123 [label="gini = 0.0\nsamples = 1\nvalue = [2, 0]\nclass = Died", fillcolor="#e58139"] ;
117 -> 123 ;
124 [label="gini = 0.0\nsamples = 2\nvalue = [0, 6]\nclass = Survived", fillcolor="#399de5"] ;
114 -> 124 ;
125 [label="Fare <= -0.367\ngini = 0.457\nsamples = 12\nvalue = [11, 6]\nclass = Died", fillcolor="#f3c6a5"] ;
113 -> 125 ;
126 [label="Embarked_S <= 0.5\ngini = 0.48\nsamples = 9\nvalue = [4, 6]\nclass = Survived", fillcolor="#bddef6"] ;
125 -> 126 ;
127 [label="gini = 0.0\nsamples = 1\nvalue = [0, 1]\nclass = Survived", fillcolor="#399de5"] ;
126 -> 127 ;
128 [label="Pclass <= 0.228\ngini = 0.494\nsamples = 8\nvalue = [4, 5]\nclass = Survived", fillcolor="#d7ebfa"] ;
126 -> 128 ;
129 [label="gini = 0.0\nsamples = 3\nvalue = [0, 4]\nclass = Survived", fillcolor="#399de5"] ;
128 -> 129 ;
130 [label="Fare <= -0.468\ngini = 0.32\nsamples = 5\nvalue = [4, 1]\nclass = Died", fillcolor="#eca06a"] ;
128 -> 130 ;
131 [label="gini = 0.0\nsamples = 4\nvalue = [4, 0]\nclass = Died", fillcolor="#e58139"] ;
130 -> 131 ;
132 [label="gini = 0.0\nsamples = 1\nvalue = [0, 1]\nclass = Survived", fillcolor="#399de5"] ;
130 -> 132 ;
133 [label="gini = 0.0\nsamples = 3\nvalue = [7, 0]\nclass = Died", fillcolor="#e58139"] ;
125 -> 133 ;
134 [label="Fare <= -0.488\ngini = 0.465\nsamples = 14\nvalue = [7, 12]\nclass = Survived", fillcolor="#acd6f4"] ;
112 -> 134 ;
135 [label="gini = 0.0\nsamples = 1\nvalue = [1, 0]\nclass = Died", fillcolor="#e58139"] ;
134 -> 135 ;
136 [label="Age <= -0.675\ngini = 0.444\nsamples = 13\nvalue = [6, 12]\nclass = Survived", fillcolor="#9ccef2"] ;
134 -> 136 ;
137 [label="gini = 0.0\nsamples = 1\nvalue = [1, 0]\nclass = Died", fillcolor="#e58139"] ;
136 -> 137 ;
138 [label="Pclass <= 0.228\ngini = 0.415\nsamples = 12\nvalue = [5, 12]\nclass = Survived", fillcolor="#8bc6f0"] ;
136 -> 138 ;
139 [label="gini = 0.0\nsamples = 2\nvalue = [0, 2]\nclass = Survived", fillcolor="#399de5"] ;
138 -> 139 ;
140 [label="Fare <= -0.482\ngini = 0.444\nsamples = 10\nvalue = [5, 10]\nclass = Survived", fillcolor="#9ccef2"] ;
138 -> 140 ;
141 [label="Age <= -0.035\ngini = 0.408\nsamples = 9\nvalue = [4, 10]\nclass = Survived", fillcolor="#88c4ef"] ;
140 -> 141 ;
142 [label="Age <= -0.375\ngini = 0.355\nsamples = 8\nvalue = [3, 10]\nclass = Survived", fillcolor="#74baed"] ;
141 -> 142 ;
143 [label="gini = 0.0\nsamples = 1\nvalue = [0, 2]\nclass = Survived", fillcolor="#399de5"] ;
142 -> 143 ;
144 [label="Parch <= 0.94\ngini = 0.397\nsamples = 7\nvalue = [3, 8]\nclass = Survived", fillcolor="#83c2ef"] ;
142 -> 144 ;
145 [label="Fare <= -0.486\ngini = 0.32\nsamples = 6\nvalue = [2, 8]\nclass = Survived", fillcolor="#6ab6ec"] ;
144 -> 145 ;
146 [label="Fare <= -0.486\ngini = 0.375\nsamples = 5\nvalue = [2, 6]\nclass = Survived", fillcolor="#7bbeee"] ;
145 -> 146 ;
147 [label="gini = 0.0\nsamples = 1\nvalue = [0, 1]\nclass = Survived", fillcolor="#399de5"] ;
146 -> 147 ;
148 [label="gini = 0.408\nsamples = 4\nvalue = [2, 5]\nclass = Survived", fillcolor="#88c4ef"] ;
146 -> 148 ;
149 [label="gini = 0.0\nsamples = 1\nvalue = [0, 2]\nclass = Survived", fillcolor="#399de5"] ;
145 -> 149 ;
150 [label="gini = 0.0\nsamples = 1\nvalue = [1, 0]\nclass = Died", fillcolor="#e58139"] ;
144 -> 150 ;
151 [label="gini = 0.0\nsamples = 1\nvalue = [1, 0]\nclass = Died", fillcolor="#e58139"] ;
141 -> 151 ;
152 [label="gini = 0.0\nsamples = 1\nvalue = [1, 0]\nclass = Died", fillcolor="#e58139"] ;
140 -> 152 ;
153 [label="Pclass <= 0.228\ngini = 0.179\nsamples = 125\nvalue = [190, 21]\nclass = Died", fillcolor="#e88f4f"] ;
111 -> 153 ;
154 [label="Embarked_S <= 0.5\ngini = 0.046\nsamples = 24\nvalue = [41, 1]\nclass = Died", fillcolor="#e6843e"] ;
153 -> 154 ;
155 [label="gini = 0.0\nsamples = 2\nvalue = [4, 0]\nclass = Died", fillcolor="#e58139"] ;
154 -> 155 ;
156 [label="Age <= 0.285\ngini = 0.051\nsamples = 22\nvalue = [37, 1]\nclass = Died", fillcolor="#e6843e"] ;
154 -> 156 ;
157 [label="gini = 0.0\nsamples = 18\nvalue = [33, 0]\nclass = Died", fillcolor="#e58139"] ;
156 -> 157 ;
158 [label="Fare <= -0.406\ngini = 0.32\nsamples = 4\nvalue = [4, 1]\nclass = Died", fillcolor="#eca06a"] ;
156 -> 158 ;
159 [label="gini = 0.0\nsamples = 1\nvalue = [1, 0]\nclass = Died", fillcolor="#e58139"] ;
158 -> 159 ;
160 [label="gini = 0.375\nsamples = 3\nvalue = [3, 1]\nclass = Died", fillcolor="#eeab7b"] ;
158 -> 160 ;
161 [label="Fare <= -0.602\ngini = 0.209\nsamples = 101\nvalue = [149, 20]\nclass = Died", fillcolor="#e89254"] ;
153 -> 161 ;
162 [label="gini = 0.0\nsamples = 1\nvalue = [0, 3]\nclass = Survived", fillcolor="#399de5"] ;
161 -> 162 ;
163 [label="Embarked_S <= 0.5\ngini = 0.184\nsamples = 100\nvalue = [149, 17]\nclass = Died", fillcolor="#e88f50"] ;
161 -> 163 ;
164 [label="Age <= -0.714\ngini = 0.202\nsamples = 26\nvalue = [31, 4]\nclass = Died", fillcolor="#e89153"] ;
163 -> 164 ;
165 [label="Fare <= -0.529\ngini = 0.5\nsamples = 2\nvalue = [1, 1]\nclass = Died", fillcolor="#ffffff"] ;
164 -> 165 ;
166 [label="gini = 0.0\nsamples = 1\nvalue = [1, 0]\nclass = Died", fillcolor="#e58139"] ;
165 -> 166 ;
167 [label="gini = 0.0\nsamples = 1\nvalue = [0, 1]\nclass = Survived", fillcolor="#399de5"] ;
165 -> 167 ;
168 [label="SibSp <= -0.003\ngini = 0.165\nsamples = 24\nvalue = [30, 3]\nclass = Died", fillcolor="#e88e4d"] ;
164 -> 168 ;
169 [label="Age <= -0.095\ngini = 0.175\nsamples = 23\nvalue = [28, 3]\nclass = Died", fillcolor="#e88e4e"] ;
168 -> 169 ;
170 [label="Embarked_Q <= 0.5\ngini = 0.083\nsamples = 18\nvalue = [22, 1]\nclass = Died", fillcolor="#e68742"] ;
169 -> 170 ;
171 [label="Fare <= -0.49\ngini = 0.165\nsamples = 8\nvalue = [10, 1]\nclass = Died", fillcolor="#e88e4d"] ;
170 -> 171 ;
172 [label="Age <= -0.375\ngini = 0.245\nsamples = 6\nvalue = [6, 1]\nclass = Died", fillcolor="#e9965a"] ;
171 -> 172 ;
173 [label="gini = 0.0\nsamples = 1\nvalue = [1, 0]\nclass = Died", fillcolor="#e58139"] ;
172 -> 173 ;
174 [label="Fare <= -0.497\ngini = 0.278\nsamples = 5\nvalue = [5, 1]\nclass = Died", fillcolor="#ea9a61"] ;
172 -> 174 ;
175 [label="gini = 0.0\nsamples = 1\nvalue = [1, 0]\nclass = Died", fillcolor="#e58139"] ;
174 -> 175 ;
176 [label="gini = 0.32\nsamples = 4\nvalue = [4, 1]\nclass = Died", fillcolor="#eca06a"] ;
174 -> 176 ;
177 [label="gini = 0.0\nsamples = 2\nvalue = [4, 0]\nclass = Died", fillcolor="#e58139"] ;
171 -> 177 ;
178 [label="gini = 0.0\nsamples = 10\nvalue = [12, 0]\nclass = Died", fillcolor="#e58139"] ;
170 -> 178 ;
179 [label="Fare <= -0.492\ngini = 0.375\nsamples = 5\nvalue = [6, 2]\nclass = Died", fillcolor="#eeab7b"] ;
169 -> 179 ;
180 [label="gini = 0.0\nsamples = 3\nvalue = [5, 0]\nclass = Died", fillcolor="#e58139"] ;
179 -> 180 ;
181 [label="Age <= 0.085\ngini = 0.444\nsamples = 2\nvalue = [1, 2]\nclass = Survived", fillcolor="#9ccef2"] ;
179 -> 181 ;
182 [label="gini = 0.0\nsamples = 1\nvalue = [0, 2]\nclass = Survived", fillcolor="#399de5"] ;
181 -> 182 ;
183 [label="gini = 0.0\nsamples = 1\nvalue = [1, 0]\nclass = Died", fillcolor="#e58139"] ;
181 -> 183 ;
184 [label="gini = 0.0\nsamples = 1\nvalue = [2, 0]\nclass = Died", fillcolor="#e58139"] ;
168 -> 184 ;
185 [label="SibSp <= -0.003\ngini = 0.179\nsamples = 74\nvalue = [118, 13]\nclass = Died", fillcolor="#e88f4f"] ;
163 -> 185 ;
186 [label="Age <= -0.275\ngini = 0.167\nsamples = 67\nvalue = [109, 11]\nclass = Died", fillcolor="#e88e4d"] ;
185 -> 186 ;
187 [label="gini = 0.0\nsamples = 29\nvalue = [54, 0]\nclass = Died", fillcolor="#e58139"] ;
186 -> 187 ;
188 [label="Fare <= -0.48\ngini = 0.278\nsamples = 38\nvalue = [55, 11]\nclass = Died", fillcolor="#ea9a61"] ;
186 -> 188 ;
189 [label="Fare <= -0.484\ngini = 0.171\nsamples = 31\nvalue = [48, 5]\nclass = Died", fillcolor="#e88e4e"] ;
188 -> 189 ;
190 [label="Fare <= -0.49\ngini = 0.337\nsamples = 10\nvalue = [11, 3]\nclass = Died", fillcolor="#eca36f"] ;
189 -> 190 ;
191 [label="gini = 0.0\nsamples = 4\nvalue = [5, 0]\nclass = Died", fillcolor="#e58139"] ;
190 -> 191 ;
192 [label="Fare <= -0.485\ngini = 0.444\nsamples = 6\nvalue = [6, 3]\nclass = Died", fillcolor="#f2c09c"] ;
190 -> 192 ;
193 [label="Fare <= -0.486\ngini = 0.408\nsamples = 4\nvalue = [5, 2]\nclass = Died", fillcolor="#efb388"] ;
192 -> 193 ;
194 [label="Age <= 0.065\ngini = 0.444\nsamples = 2\nvalue = [2, 1]\nclass = Died", fillcolor="#f2c09c"] ;
193 -> 194 ;
195 [label="gini = 0.0\nsamples = 1\nvalue = [0, 1]\nclass = Survived", fillcolor="#399de5"] ;
194 -> 195 ;
196 [label="gini = 0.0\nsamples = 1\nvalue = [2, 0]\nclass = Died", fillcolor="#e58139"] ;
194 -> 196 ;
197 [label="Age <= -0.195\ngini = 0.375\nsamples = 2\nvalue = [3, 1]\nclass = Died", fillcolor="#eeab7b"] ;
193 -> 197 ;
198 [label="gini = 0.0\nsamples = 1\nvalue = [0, 1]\nclass = Survived", fillcolor="#399de5"] ;
197 -> 198 ;
199 [label="gini = 0.0\nsamples = 1\nvalue = [3, 0]\nclass = Died", fillcolor="#e58139"] ;
197 -> 199 ;
200 [label="Age <= 0.005\ngini = 0.5\nsamples = 2\nvalue = [1, 1]\nclass = Died", fillcolor="#ffffff"] ;
192 -> 200 ;
201 [label="gini = 0.0\nsamples = 1\nvalue = [1, 0]\nclass = Died", fillcolor="#e58139"] ;
200 -> 201 ;
202 [label="gini = 0.0\nsamples = 1\nvalue = [0, 1]\nclass = Survived", fillcolor="#399de5"] ;
200 -> 202 ;
203 [label="Age <= 0.085\ngini = 0.097\nsamples = 21\nvalue = [37, 2]\nclass = Died", fillcolor="#e68844"] ;
189 -> 203 ;
204 [label="gini = 0.0\nsamples = 15\nvalue = [27, 0]\nclass = Died", fillcolor="#e58139"] ;
203 -> 204 ;
205 [label="Fare <= -0.482\ngini = 0.278\nsamples = 6\nvalue = [10, 2]\nclass = Died", fillcolor="#ea9a61"] ;
203 -> 205 ;
206 [label="gini = 0.0\nsamples = 3\nvalue = [5, 0]\nclass = Died", fillcolor="#e58139"] ;
205 -> 206 ;
207 [label="Age <= 0.245\ngini = 0.408\nsamples = 3\nvalue = [5, 2]\nclass = Died", fillcolor="#efb388"] ;
205 -> 207 ;
208 [label="gini = 0.0\nsamples = 1\nvalue = [0, 2]\nclass = Survived", fillcolor="#399de5"] ;
207 -> 208 ;
209 [label="gini = 0.0\nsamples = 2\nvalue = [5, 0]\nclass = Died", fillcolor="#e58139"] ;
207 -> 209 ;
210 [label="Age <= -0.175\ngini = 0.497\nsamples = 7\nvalue = [7, 6]\nclass = Died", fillcolor="#fbede3"] ;
188 -> 210 ;
211 [label="gini = 0.0\nsamples = 1\nvalue = [0, 3]\nclass = Survived", fillcolor="#399de5"] ;
210 -> 211 ;
212 [label="Age <= 0.025\ngini = 0.42\nsamples = 6\nvalue = [7, 3]\nclass = Died", fillcolor="#f0b78e"] ;
210 -> 212 ;
213 [label="Fare <= -0.465\ngini = 0.469\nsamples = 4\nvalue = [5, 3]\nclass = Died", fillcolor="#f5cdb0"] ;
212 -> 213 ;
214 [label="gini = 0.0\nsamples = 1\nvalue = [0, 3]\nclass = Survived", fillcolor="#399de5"] ;
213 -> 214 ;
215 [label="gini = 0.0\nsamples = 3\nvalue = [5, 0]\nclass = Died", fillcolor="#e58139"] ;
213 -> 215 ;
216 [label="gini = 0.0\nsamples = 2\nvalue = [2, 0]\nclass = Died", fillcolor="#e58139"] ;
212 -> 216 ;
217 [label="SibSp <= 0.891\ngini = 0.298\nsamples = 7\nvalue = [9, 2]\nclass = Died", fillcolor="#eb9d65"] ;
185 -> 217 ;
218 [label="Fare <= -0.484\ngini = 0.346\nsamples = 6\nvalue = [7, 2]\nclass = Died", fillcolor="#eca572"] ;
217 -> 218 ;
219 [label="Age <= -0.355\ngini = 0.219\nsamples = 5\nvalue = [7, 1]\nclass = Died", fillcolor="#e99355"] ;
218 -> 219 ;
220 [label="Fare <= -0.491\ngini = 0.375\nsamples = 3\nvalue = [3, 1]\nclass = Died", fillcolor="#eeab7b"] ;
219 -> 220 ;
221 [label="gini = 0.0\nsamples = 1\nvalue = [1, 0]\nclass = Died", fillcolor="#e58139"] ;
220 -> 221 ;
222 [label="gini = 0.444\nsamples = 2\nvalue = [2, 1]\nclass = Died", fillcolor="#f2c09c"] ;
220 -> 222 ;
223 [label="gini = 0.0\nsamples = 2\nvalue = [4, 0]\nclass = Died", fillcolor="#e58139"] ;
219 -> 223 ;
224 [label="gini = 0.0\nsamples = 1\nvalue = [0, 1]\nclass = Survived", fillcolor="#399de5"] ;
218 -> 224 ;
225 [label="gini = 0.0\nsamples = 1\nvalue = [2, 0]\nclass = Died", fillcolor="#e58139"] ;
217 -> 225 ;
226 [label="Fare <= -0.406\ngini = 0.48\nsamples = 12\nvalue = [12, 8]\nclass = Died", fillcolor="#f6d5bd"] ;
110 -> 226 ;
227 [label="gini = 0.0\nsamples = 7\nvalue = [9, 0]\nclass = Died", fillcolor="#e58139"] ;
226 -> 227 ;
228 [label="Sex_male <= 0.5\ngini = 0.397\nsamples = 5\nvalue = [3, 8]\nclass = Survived", fillcolor="#83c2ef"] ;
226 -> 228 ;
229 [label="Age <= 0.564\ngini = 0.198\nsamples = 4\nvalue = [1, 8]\nclass = Survived", fillcolor="#52a9e8"] ;
228 -> 229 ;
230 [label="gini = 0.0\nsamples = 2\nvalue = [0, 5]\nclass = Survived", fillcolor="#399de5"] ;
229 -> 230 ;
231 [label="Age <= 0.724\ngini = 0.375\nsamples = 2\nvalue = [1, 3]\nclass = Survived", fillcolor="#7bbeee"] ;
229 -> 231 ;
232 [label="gini = 0.0\nsamples = 1\nvalue = [1, 0]\nclass = Died", fillcolor="#e58139"] ;
231 -> 232 ;
233 [label="gini = 0.0\nsamples = 1\nvalue = [0, 3]\nclass = Survived", fillcolor="#399de5"] ;
231 -> 233 ;
234 [label="gini = 0.0\nsamples = 1\nvalue = [2, 0]\nclass = Died", fillcolor="#e58139"] ;
228 -> 234 ;
235 [label="Age <= 1.284\ngini = 0.042\nsamples = 31\nvalue = [46, 1]\nclass = Died", fillcolor="#e6843d"] ;
109 -> 235 ;
236 [label="Age <= 1.164\ngini = 0.095\nsamples = 13\nvalue = [19, 1]\nclass = Died", fillcolor="#e68843"] ;
235 -> 236 ;
237 [label="gini = 0.0\nsamples = 10\nvalue = [16, 0]\nclass = Died", fillcolor="#e58139"] ;
236 -> 237 ;
238 [label="Embarked_S <= 0.5\ngini = 0.375\nsamples = 3\nvalue = [3, 1]\nclass = Died", fillcolor="#eeab7b"] ;
236 -> 238 ;
239 [label="gini = 0.0\nsamples = 1\nvalue = [2, 0]\nclass = Died", fillcolor="#e58139"] ;
238 -> 239 ;
240 [label="Sex_male <= 0.5\ngini = 0.5\nsamples = 2\nvalue = [1, 1]\nclass = Died", fillcolor="#ffffff"] ;
238 -> 240 ;
241 [label="gini = 0.0\nsamples = 1\nvalue = [0, 1]\nclass = Survived", fillcolor="#399de5"] ;
240 -> 241 ;
242 [label="gini = 0.0\nsamples = 1\nvalue = [1, 0]\nclass = Died", fillcolor="#e58139"] ;
240 -> 242 ;
243 [label="gini = 0.0\nsamples = 18\nvalue = [27, 0]\nclass = Died", fillcolor="#e58139"] ;
235 -> 243 ;
244 [label="Sex_male <= 0.5\ngini = 0.497\nsamples = 86\nvalue = [72, 62]\nclass = Died", fillcolor="#fbeee4"] ;
68 -> 244 ;
245 [label="Parch <= 4.421\ngini = 0.408\nsamples = 41\nvalue = [18, 45]\nclass = Survived", fillcolor="#88c4ef"] ;
244 -> 245 ;
246 [label="SibSp <= 1.784\ngini = 0.362\nsamples = 38\nvalue = [14, 45]\nclass = Survived", fillcolor="#77bbed"] ;
245 -> 246 ;
247 [label="Age <= 0.844\ngini = 0.215\nsamples = 31\nvalue = [6, 43]\nclass = Survived", fillcolor="#55abe9"] ;
246 -> 247 ;
248 [label="Embarked_Q <= 0.5\ngini = 0.091\nsamples = 27\nvalue = [2, 40]\nclass = Survived", fillcolor="#43a2e6"] ;
247 -> 248 ;
249 [label="Parch <= 0.244\ngini = 0.097\nsamples = 24\nvalue = [2, 37]\nclass = Survived", fillcolor="#44a2e6"] ;
248 -> 249 ;
250 [label="gini = 0.0\nsamples = 7\nvalue = [0, 10]\nclass = Survived", fillcolor="#399de5"] ;
249 -> 250 ;
251 [label="Fare <= -0.176\ngini = 0.128\nsamples = 17\nvalue = [2, 27]\nclass = Survived", fillcolor="#48a4e7"] ;
249 -> 251 ;
252 [label="gini = 0.0\nsamples = 7\nvalue = [0, 16]\nclass = Survived", fillcolor="#399de5"] ;
251 -> 252 ;
253 [label="Fare <= -0.11\ngini = 0.26\nsamples = 10\nvalue = [2, 11]\nclass = Survived", fillcolor="#5dafea"] ;
251 -> 253 ;
254 [label="Age <= 0.065\ngini = 0.444\nsamples = 3\nvalue = [2, 1]\nclass = Died", fillcolor="#f2c09c"] ;
253 -> 254 ;
255 [label="gini = 0.0\nsamples = 2\nvalue = [2, 0]\nclass = Died", fillcolor="#e58139"] ;
254 -> 255 ;
256 [label="gini = 0.0\nsamples = 1\nvalue = [0, 1]\nclass = Survived", fillcolor="#399de5"] ;
254 -> 256 ;
257 [label="gini = 0.0\nsamples = 7\nvalue = [0, 10]\nclass = Survived", fillcolor="#399de5"] ;
253 -> 257 ;
258 [label="gini = 0.0\nsamples = 3\nvalue = [0, 3]\nclass = Survived", fillcolor="#399de5"] ;
248 -> 258 ;
259 [label="Pclass <= 0.228\ngini = 0.49\nsamples = 4\nvalue = [4, 3]\nclass = Died", fillcolor="#f8e0ce"] ;
247 -> 259 ;
260 [label="SibSp <= -0.003\ngini = 0.5\nsamples = 3\nvalue = [3, 3]\nclass = Died", fillcolor="#ffffff"] ;
259 -> 260 ;
261 [label="gini = 0.0\nsamples = 1\nvalue = [0, 2]\nclass = Survived", fillcolor="#399de5"] ;
260 -> 261 ;
262 [label="Fare <= 0.272\ngini = 0.375\nsamples = 2\nvalue = [3, 1]\nclass = Died", fillcolor="#eeab7b"] ;
260 -> 262 ;
263 [label="gini = 0.0\nsamples = 1\nvalue = [3, 0]\nclass = Died", fillcolor="#e58139"] ;
262 -> 263 ;
264 [label="gini = 0.0\nsamples = 1\nvalue = [0, 1]\nclass = Survived", fillcolor="#399de5"] ;
262 -> 264 ;
265 [label="gini = 0.0\nsamples = 1\nvalue = [1, 0]\nclass = Died", fillcolor="#e58139"] ;
259 -> 265 ;
266 [label="Fare <= -0.047\ngini = 0.32\nsamples = 7\nvalue = [8, 2]\nclass = Died", fillcolor="#eca06a"] ;
246 -> 266 ;
267 [label="gini = 0.0\nsamples = 4\nvalue = [5, 0]\nclass = Died", fillcolor="#e58139"] ;
266 -> 267 ;
268 [label="Age <= -1.054\ngini = 0.48\nsamples = 3\nvalue = [3, 2]\nclass = Died", fillcolor="#f6d5bd"] ;
266 -> 268 ;
269 [label="gini = 0.0\nsamples = 1\nvalue = [0, 2]\nclass = Survived", fillcolor="#399de5"] ;
268 -> 269 ;
270 [label="gini = 0.0\nsamples = 2\nvalue = [3, 0]\nclass = Died", fillcolor="#e58139"] ;
268 -> 270 ;
271 [label="gini = 0.0\nsamples = 3\nvalue = [4, 0]\nclass = Died", fillcolor="#e58139"] ;
245 -> 271 ;
272 [label="Age <= -2.113\ngini = 0.364\nsamples = 45\nvalue = [54, 17]\nclass = Died", fillcolor="#eda977"] ;
244 -> 272 ;
273 [label="Embarked_S <= 0.5\ngini = 0.245\nsamples = 6\nvalue = [2, 12]\nclass = Survived", fillcolor="#5aade9"] ;
272 -> 273 ;
274 [label="gini = 0.0\nsamples = 1\nvalue = [2, 0]\nclass = Died", fillcolor="#e58139"] ;
273 -> 274 ;
275 [label="gini = 0.0\nsamples = 5\nvalue = [0, 12]\nclass = Survived", fillcolor="#399de5"] ;
273 -> 275 ;
276 [label="Fare <= 0.396\ngini = 0.16\nsamples = 39\nvalue = [52, 5]\nclass = Died", fillcolor="#e88d4c"] ;
272 -> 276 ;
277 [label="Age <= -0.754\ngini = 0.109\nsamples = 34\nvalue = [49, 3]\nclass = Died", fillcolor="#e78945"] ;
276 -> 277 ;
278 [label="Pclass <= 0.228\ngini = 0.26\nsamples = 9\nvalue = [11, 2]\nclass = Died", fillcolor="#ea985d"] ;
277 -> 278 ;
279 [label="Age <= -1.434\ngini = 0.5\nsamples = 2\nvalue = [1, 1]\nclass = Died", fillcolor="#ffffff"] ;
278 -> 279 ;
280 [label="gini = 0.0\nsamples = 1\nvalue = [0, 1]\nclass = Survived", fillcolor="#399de5"] ;
279 -> 280 ;
281 [label="gini = 0.0\nsamples = 1\nvalue = [1, 0]\nclass = Died", fillcolor="#e58139"] ;
279 -> 281 ;
282 [label="SibSp <= 1.337\ngini = 0.165\nsamples = 7\nvalue = [10, 1]\nclass = Died", fillcolor="#e88e4d"] ;
278 -> 282 ;
283 [label="Parch <= 0.244\ngini = 0.375\nsamples = 2\nvalue = [3, 1]\nclass = Died", fillcolor="#eeab7b"] ;
282 -> 283 ;
284 [label="gini = 0.0\nsamples = 1\nvalue = [3, 0]\nclass = Died", fillcolor="#e58139"] ;
283 -> 284 ;
285 [label="gini = 0.0\nsamples = 1\nvalue = [0, 1]\nclass = Survived", fillcolor="#399de5"] ;
283 -> 285 ;
286 [label="gini = 0.0\nsamples = 5\nvalue = [7, 0]\nclass = Died", fillcolor="#e58139"] ;
282 -> 286 ;
287 [label="SibSp <= -0.003\ngini = 0.05\nsamples = 25\nvalue = [38, 1]\nclass = Died", fillcolor="#e6843e"] ;
277 -> 287 ;
288 [label="gini = 0.0\nsamples = 5\nvalue = [7, 0]\nclass = Died", fillcolor="#e58139"] ;
287 -> 288 ;
289 [label="SibSp <= 1.337\ngini = 0.061\nsamples = 20\nvalue = [31, 1]\nclass = Died", fillcolor="#e6853f"] ;
287 -> 289 ;
290 [label="Embarked_S <= 0.5\ngini = 0.062\nsamples = 19\nvalue = [30, 1]\nclass = Died", fillcolor="#e68540"] ;
289 -> 290 ;
291 [label="gini = 0.0\nsamples = 2\nvalue = [6, 0]\nclass = Died", fillcolor="#e58139"] ;
290 -> 291 ;
292 [label="Fare <= -0.138\ngini = 0.077\nsamples = 17\nvalue = [24, 1]\nclass = Died", fillcolor="#e68641"] ;
290 -> 292 ;
293 [label="gini = 0.0\nsamples = 10\nvalue = [17, 0]\nclass = Died", fillcolor="#e58139"] ;
292 -> 293 ;
294 [label="Age <= 0.245\ngini = 0.219\nsamples = 7\nvalue = [7, 1]\nclass = Died", fillcolor="#e99355"] ;
292 -> 294 ;
295 [label="Parch <= 0.244\ngini = 0.5\nsamples = 2\nvalue = [1, 1]\nclass = Died", fillcolor="#ffffff"] ;
294 -> 295 ;
296 [label="gini = 0.0\nsamples = 1\nvalue = [0, 1]\nclass = Survived", fillcolor="#399de5"] ;
295 -> 296 ;
297 [label="gini = 0.0\nsamples = 1\nvalue = [1, 0]\nclass = Died", fillcolor="#e58139"] ;
295 -> 297 ;
298 [label="gini = 0.0\nsamples = 5\nvalue = [6, 0]\nclass = Died", fillcolor="#e58139"] ;
294 -> 298 ;
299 [label="gini = 0.0\nsamples = 1\nvalue = [1, 0]\nclass = Died", fillcolor="#e58139"] ;
289 -> 299 ;
300 [label="Pclass <= 0.228\ngini = 0.48\nsamples = 5\nvalue = [3, 2]\nclass = Died", fillcolor="#f6d5bd"] ;
276 -> 300 ;
301 [label="gini = 0.0\nsamples = 1\nvalue = [1, 0]\nclass = Died", fillcolor="#e58139"] ;
300 -> 301 ;
302 [label="SibSp <= 3.124\ngini = 0.5\nsamples = 4\nvalue = [2, 2]\nclass = Died", fillcolor="#ffffff"] ;
300 -> 302 ;
303 [label="Age <= -0.135\ngini = 0.444\nsamples = 3\nvalue = [1, 2]\nclass = Survived", fillcolor="#9ccef2"] ;
302 -> 303 ;
304 [label="gini = 0.0\nsamples = 1\nvalue = [1, 0]\nclass = Died", fillcolor="#e58139"] ;
303 -> 304 ;
305 [label="gini = 0.0\nsamples = 2\nvalue = [0, 2]\nclass = Survived", fillcolor="#399de5"] ;
303 -> 305 ;
306 [label="gini = 0.0\nsamples = 1\nvalue = [1, 0]\nclass = Died", fillcolor="#e58139"] ;
302 -> 306 ;
}